solver_type L2R_LR
nr_class 7
label 6 5 4 7 1 3 2
nr_feature 25
bias -1
w
0.005434010657367072 -0.195523726142539 -0.1088912138697899 0.03845712682303091 -0.31036021411729 -1.378259583760685 -0.1436371966180915 
-0.04610596575587699 -0.08364213364245748 0.03598843166650072 -0.0859133077961991 -0.03185323582688844 0.03832956588251057 0.01929401848918721 
0.008012422286590489 0.01281057710968101 -0.2280747954720483 -0.02880743978269306 -0.1890229206829314 0.04793787853664953 0.002443594209240535 
-0.08328400902675034 -0.06567066812604258 -0.2068723246192264 0.007246964805160445 0.2780749171920328 -0.0326775565365624 0.1345955858748011 
0.01790489054263139 -0.07432732348256112 0.1130115517415506 -0.08770597901821664 0.04406172237965053 0.06273843940256245 -0.2781897860918658 
-0.07666340031212003 0.06567684428914465 -0.01650244940873723 0.0009508222579111979 -0.3361538544714069 0.1069956829051546 -0.008321800914771407 
0.0293676866938274 -0.03517492200012644 0.01228025765893695 -0.02886942841206706 -0.01664668375212938 0.04287495621300561 0.01318085441132212 
-0.2273081990910711 -0.01969803823854939 0.04221445990444745 -0.04131697044675468 0.04300100475027772 -0.2210763936029984 -0.1539764603080876 
-0.0268396612745791 0.03431194133500535 -0.02789907351160729 -0.02002319186908371 0.0009043568818270702 0.09546968672603541 -0.0001199135605895246 
-0.08582329805594685 -0.2998534918193603 -0.001577308973927378 0.05185409496891581 0.01703449003450991 -0.4544409233925327 -0.01966027511482342 
0.1304764363886663 0.03419863547804703 -0.1678346583019816 -0.3741071313747526 0.1580939632743462 0.05137846366198469 -0.02982411931284811 
-0.009948085586578444 -0.6169778515632475 0.1151232015253853 -0.3370139286202201 -0.2332772670561157 0.3113503735272703 0.1680879532227672 
0.1741351859452887 0.3556800021851202 -0.9792727876429537 -0.09081123435202514 -0.5106432041236191 0.2294308715989762 -0.05075290249347179 
-1.106673666876855 0.08511177512816023 -0.3701932007738298 0.1658985534091774 -0.2880541598228524 0.3613643949661389 -0.02373672305583347 
-0.6030335411156879 -0.05095911172237082 -0.6878506534794826 -0.09863591934157663 -0.793685643820268 0.01032485757675464 0.01053318543972559 
-0.4238566917925363 0.1455116443067029 0.2574022715952348 -0.04504709113309977 -0.4209486139997762 -0.3712764724638251 -0.4556366651498814 
-0.4044470185006352 -0.005566871643862579 -0.01387939018829783 0.8532394949146309 -0.6417011372837912 -0.5424266902183364 0.1546596027687719 
-0.5002468834431512 0.3664252356766249 0.001394631518389911 -0.0421992216986613 -0.5852852140232203 -0.1705649539396131 0.06166934370468526 
-0.5049804020731234 -0.04840390036913869 -0.1758607951916818 -0.07541327286539061 -0.1377591731395429 0.4949493395351424 0.3293470193264169 
-0.2288576366095338 0.2781691621798703 -0.0350011889106535 -0.02462547257269953 -0.4515606069629738 0.4525809435923 -0.2479368529339125 
-0.0004313757352937751 0.1553435881815418 0.002120609138696038 -0.01236105812945056 -0.1490081454405492 -0.02377080707051716 0.005777977227692951 
-9.600350004804762e-05 0.03887914112683286 -0.01015572812260309 -0.0006427111491786792 -0.209847025998972 -0.02368902468053335 0.004928300365830837 
-7.215379113837973e-05 -0.03977337192093384 -0.005548184372898209 1.472910474545173e-05 -0.1428215580310659 -0.01704367377945518 0.003965391277669566 
-0.001803382344149864 0.01430927918855898 -0.1262678194088803 -0.0009561437579977125 -0.365648283854307 -0.2664424115565223 0.08169115350877318 
-2.111593878791635e-05 0.001522425765429174 -0.001461816971659569 -1.297486565493414e-05 2.347823987071402e-05 -0.002905434916997999 0.0009331246062443073 
